digraph Tree {
node [shape=box, style="filled, rounded", color="black", fontname=helvetica] ;
edge [fontname=helvetica] ;
0 [label="Work-Flow-ID <= 3.5\nmse = 0.01\nsamples = 11764\nvalue = 0.06", fillcolor="#e5813933"] ;
1 [label="Work-Flow-ID <= 0.5\nmse = 0.01\nsamples = 9346\nvalue = 0.04", fillcolor="#e5813922"] ;
0 -> 1 [labeldistance=2.5, labelangle=45, headlabel="True"] ;
2 [label="Backup Start Time - Hour of Day <= 11.0\nmse = 0.0\nsamples = 2348\nvalue = 0.1", fillcolor="#e5813954"] ;
1 -> 2 ;
3 [label="Day of Week <= 3.5\nmse = 0.0\nsamples = 1206\nvalue = 0.06", fillcolor="#e5813933"] ;
2 -> 3 ;
4 [label="mse = 0.0\nsamples = 700\nvalue = 0.05", fillcolor="#e5813929"] ;
3 -> 4 ;
5 [label="mse = 0.0\nsamples = 506\nvalue = 0.08", fillcolor="#e5813942"] ;
3 -> 5 ;
6 [label="Day of Week <= 3.5\nmse = 0.0\nsamples = 1142\nvalue = 0.14", fillcolor="#e5813977"] ;
2 -> 6 ;
7 [label="mse = 0.0\nsamples = 693\nvalue = 0.11", fillcolor="#e5813961"] ;
6 -> 7 ;
8 [label="mse = 0.0\nsamples = 449\nvalue = 0.17", fillcolor="#e5813995"] ;
6 -> 8 ;
9 [label="Day of Week <= 1.5\nmse = 0.01\nsamples = 6998\nvalue = 0.02", fillcolor="#e5813911"] ;
1 -> 9 ;
10 [label="Work-Flow-ID <= 1.5\nmse = 0.03\nsamples = 1946\nvalue = 0.06", fillcolor="#e5813931"] ;
9 -> 10 ;
11 [label="mse = 0.08\nsamples = 599\nvalue = 0.15", fillcolor="#e5813983"] ;
10 -> 11 ;
12 [label="mse = 0.0\nsamples = 1347\nvalue = 0.02", fillcolor="#e581390d"] ;
10 -> 12 ;
13 [label="File Name <= 9.5\nmse = 0.0\nsamples = 5052\nvalue = 0.01", fillcolor="#e5813904"] ;
9 -> 13 ;
14 [label="mse = 0.0\nsamples = 2265\nvalue = 0.01", fillcolor="#e5813909"] ;
13 -> 14 ;
15 [label="mse = 0.0\nsamples = 2787\nvalue = 0.0", fillcolor="#e5813900"] ;
13 -> 15 ;
16 [label="Day of Week <= 3.5\nmse = 0.01\nsamples = 2418\nvalue = 0.14", fillcolor="#e5813975"] ;
0 -> 16 [labeldistance=2.5, labelangle=-45, headlabel="False"] ;
17 [label="Day of Week <= 1.5\nmse = 0.02\nsamples = 1404\nvalue = 0.17", fillcolor="#e5813995"] ;
16 -> 17 ;
18 [label="Backup Start Time - Hour of Day <= 15.0\nmse = 0.0\nsamples = 679\nvalue = 0.09", fillcolor="#e581394b"] ;
17 -> 18 ;
19 [label="mse = 0.0\nsamples = 462\nvalue = 0.1", fillcolor="#e5813951"] ;
18 -> 19 ;
20 [label="mse = 0.0\nsamples = 217\nvalue = 0.07", fillcolor="#e581393c"] ;
18 -> 20 ;
21 [label="Backup Start Time - Hour of Day <= 7.0\nmse = 0.02\nsamples = 725\nvalue = 0.25", fillcolor="#e58139d8"] ;
17 -> 21 ;
22 [label="mse = 0.0\nsamples = 236\nvalue = 0.16", fillcolor="#e581398b"] ;
21 -> 22 ;
23 [label="mse = 0.02\nsamples = 489\nvalue = 0.29", fillcolor="#e58139ff"] ;
21 -> 23 ;
24 [label="Backup Start Time - Hour of Day <= 15.0\nmse = 0.0\nsamples = 1014\nvalue = 0.08", fillcolor="#e5813946"] ;
16 -> 24 ;
25 [label="Backup Start Time - Hour of Day <= 7.0\nmse = 0.0\nsamples = 670\nvalue = 0.09", fillcolor="#e581394b"] ;
24 -> 25 ;
26 [label="mse = 0.0\nsamples = 335\nvalue = 0.07", fillcolor="#e581393d"] ;
25 -> 26 ;
27 [label="mse = 0.0\nsamples = 335\nvalue = 0.11", fillcolor="#e581395a"] ;
25 -> 27 ;
28 [label="Backup Start Time - Hour of Day <= 19.0\nmse = 0.0\nsamples = 344\nvalue = 0.07", fillcolor="#e581393d"] ;
24 -> 28 ;
29 [label="mse = 0.0\nsamples = 184\nvalue = 0.07", fillcolor="#e581393d"] ;
28 -> 29 ;
30 [label="mse = 0.0\nsamples = 160\nvalue = 0.07", fillcolor="#e581393b"] ;
28 -> 30 ;
}